<?xml version="1.0"?>
<opencv_storage>
<cascade>
  <stageType>BOOST</stageType>
  <featureType>HAAR</featureType>
  <height>48</height>
  <width>48</width>
  <stageParams>
    <boostType>GAB</boostType>
    <minHitRate>9.9500000476837158e-01</minHitRate>
    <maxFalseAlarm>5.0000000000000000e-01</maxFalseAlarm>
    <weightTrimRate>9.4999999999999996e-01</weightTrimRate>
    <maxDepth>1</maxDepth>
    <maxWeakCount>100</maxWeakCount></stageParams>
  <featureParams>
    <maxCatCount>0</maxCatCount>
    <featSize>1</featSize>
    <mode>BASIC</mode></featureParams>
  <stageNum>4</stageNum>
  <stages>
    <!-- stage 0 -->
    <_>
      <maxWeakCount>1</maxWeakCount>
      <stageThreshold>9.6078431606292725e-01</stageThreshold>
      <weakClassifiers>
        <_>
          <internalNodes>
            0 -1 3 7.7604921534657478e-03</internalNodes>
          <leafValues>
            -1. 9.6078431606292725e-01</leafValues></_></weakClassifiers></_>
    <!-- stage 1 -->
    <_>
      <maxWeakCount>2</maxWeakCount>
      <stageThreshold>-7.6504461467266083e-02</stageThreshold>
      <weakClassifiers>
        <_>
          <internalNodes>
            0 -1 5 5.2856269758194685e-04</internalNodes>
          <leafValues>
            -9.7916668653488159e-01 8.1481480598449707e-01</leafValues></_>
        <_>
          <internalNodes>
            0 -1 4 1.3800436630845070e-02</internalNodes>
          <leafValues>
            -8.9131927490234375e-01 9.3307518959045410e-01</leafValues></_></weakClassifiers></_>
    <!-- stage 2 -->
    <_>
      <maxWeakCount>2</maxWeakCount>
      <stageThreshold>-4.5463463664054871e-01</stageThreshold>
      <weakClassifiers>
        <_>
          <internalNodes>
            0 -1 6 5.2109581883996725e-04</internalNodes>
          <leafValues>
            -9.5652174949645996e-01 6.5517240762710571e-01</leafValues></_>
        <_>
          <internalNodes>
            0 -1 7 5.1712172535189893e-06</internalNodes>
          <leafValues>
            5.0188708305358887e-01 -1.</leafValues></_></weakClassifiers></_>
    <!-- stage 3 -->
    <_>
      <maxWeakCount>3</maxWeakCount>
      <stageThreshold>-5.7451915740966797e-01</stageThreshold>
      <weakClassifiers>
        <_>
          <internalNodes>
            0 -1 1 1.2471111118793488e-01</internalNodes>
          <leafValues>
            -7.1929824352264404e-01 8.8888889551162720e-01</leafValues></_>
        <_>
          <internalNodes>
            0 -1 2 -2.3056094069033861e-03</internalNodes>
          <leafValues>
            8.3446663618087769e-01 -6.8952864408493042e-01</leafValues></_>
        <_>
          <internalNodes>
            0 -1 0 3.5282475873827934e-03</internalNodes>
          <leafValues>
            -6.8968755006790161e-01 8.4398460388183594e-01</leafValues></_></weakClassifiers></_></stages>
  <features>
    <_>
      <rects>
        <_>
          2 31 14 4 -1.</_>
        <_>
          9 31 7 4 2.</_></rects>
      <tilted>0</tilted></_>
    <_>
      <rects>
        <_>
          3 16 42 11 -1.</_>
        <_>
          17 16 14 11 3.</_></rects>
      <tilted>0</tilted></_>
    <_>
      <rects>
        <_>
          17 17 8 4 -1.</_>
        <_>
          17 17 4 2 2.</_>
        <_>
          21 19 4 2 2.</_></rects>
      <tilted>0</tilted></_>
    <_>
      <rects>
        <_>
          21 21 15 3 -1.</_>
        <_>
          26 21 5 3 3.</_></rects>
      <tilted>0</tilted></_>
    <_>
      <rects>
        <_>
          22 20 6 12 -1.</_>
        <_>
          22 24 6 4 3.</_></rects>
      <tilted>0</tilted></_>
    <_>
      <rects>
        <_>
          23 23 1 2 -1.</_>
        <_>
          23 24 1 1 2.</_></rects>
      <tilted>0</tilted></_>
    <_>
      <rects>
        <_>
          23 23 3 2 -1.</_>
        <_>
          24 23 1 2 3.</_></rects>
      <tilted>0</tilted></_>
    <_>
      <rects>
        <_>
          25 23 2 1 -1.</_>
        <_>
          26 23 1 1 2.</_></rects>
      <tilted>0</tilted></_></features></cascade>
</opencv_storage>
